Language model created by QuickLM on Sun Jan 22 12:03:15 EST 2017
Copyright (c) 1996-2010 Carnegie Mellon University and Alexander I. Rudnicky

The model is in standard ARPA format, designed by Doug Paul while he was at MITRE.

The code that was used to produce this language model is available in Open Source.
Please visit http://www.speech.cs.cmu.edu/tools/ for more information

The (fixed) discount mass is 0.5. The backoffs are computed using the ratio method.
This model based on a corpus of 55 sentences and 55 words

\data\
ngram 1=55
ngram 2=106
ngram 3=53

\1-grams:
-0.7782 </s> -0.3010
-0.7782 <s> -0.2218
-2.2175 A -0.2218
-2.5185 B -0.2218
-2.5185 BEATS -0.2218
-2.5185 C -0.2218
-2.5185 CAPTURE -0.2218
-2.5185 CRACK -0.2218
-2.5185 D -0.2218
-2.5185 DATE -0.2218
-2.5185 E -0.2218
-2.5185 F -0.2218
-2.5185 FOR -0.2218
-2.5185 FORECAST -0.2218
-2.5185 G -0.2218
-2.5185 H -0.2218
-2.5185 HIT -0.2218
-2.5185 HOW -0.2218
-2.5185 HUMOUR -0.2218
-2.5185 I -0.2218
-2.5185 IRIS -0.2218
-2.5185 IS -0.2218
-2.5185 IT -0.2218
-2.5185 J -0.2218
-2.5185 JOKE -0.2218
-2.5185 K -0.2218
-2.5185 L -0.2218
-2.5185 M -0.2218
-2.5185 ME -0.2218
-2.5185 MUSIC -0.2218
-2.5185 N -0.2218
-2.5185 O -0.2218
-2.5185 P -0.2218
-2.5185 PAUSE -0.2218
-2.5185 PLAY -0.2218
-2.5185 Q -0.2218
-2.5185 R -0.2218
-2.5185 READ -0.2218
-2.5185 REPEAT -0.2218
-2.5185 S -0.2218
-2.5185 SAVE -0.2218
-2.5185 SONG -0.2218
-2.5185 T -0.2218
-2.2175 THE -0.2218
-2.5185 THIS -0.2218
-2.5185 TIME -0.2218
-2.5185 TODAY -0.2218
-2.5185 U -0.2218
-2.5185 V -0.2218
-2.5185 W -0.2218
-2.5185 WEATHER -0.2218
-2.5185 WHAT -0.2218
-2.5185 X -0.2218
-2.5185 Y -0.2218
-2.5185 Z -0.2218

\2-grams:
-1.7404 <s> A 0.0000
-2.0414 <s> B 0.0000
-2.0414 <s> BEATS 0.0000
-2.0414 <s> C 0.0000
-2.0414 <s> CAPTURE 0.0000
-2.0414 <s> CRACK 0.0000
-2.0414 <s> D 0.0000
-2.0414 <s> DATE 0.0000
-2.0414 <s> E 0.0000
-2.0414 <s> F 0.0000
-2.0414 <s> FOR 0.0000
-2.0414 <s> FORECAST 0.0000
-2.0414 <s> G 0.0000
-2.0414 <s> H 0.0000
-2.0414 <s> HIT 0.0000
-2.0414 <s> HOW 0.0000
-2.0414 <s> HUMOUR 0.0000
-2.0414 <s> I 0.0000
-2.0414 <s> IRIS 0.0000
-2.0414 <s> IS 0.0000
-2.0414 <s> IT 0.0000
-2.0414 <s> J 0.0000
-2.0414 <s> JOKE 0.0000
-2.0414 <s> K 0.0000
-2.0414 <s> L 0.0000
-2.0414 <s> M 0.0000
-2.0414 <s> ME 0.0000
-2.0414 <s> MUSIC 0.0000
-2.0414 <s> N 0.0000
-2.0414 <s> O 0.0000
-2.0414 <s> P 0.0000
-2.0414 <s> PAUSE 0.0000
-2.0414 <s> PLAY 0.0000
-2.0414 <s> Q 0.0000
-2.0414 <s> R 0.0000
-2.0414 <s> READ 0.0000
-2.0414 <s> REPEAT 0.0000
-2.0414 <s> S 0.0000
-2.0414 <s> SAVE 0.0000
-2.0414 <s> SONG 0.0000
-2.0414 <s> T 0.0000
-1.7404 <s> THE 0.0000
-2.0414 <s> THIS 0.0000
-2.0414 <s> TIME 0.0000
-2.0414 <s> TODAY 0.0000
-2.0414 <s> U 0.0000
-2.0414 <s> V 0.0000
-2.0414 <s> W 0.0000
-2.0414 <s> WEATHER 0.0000
-2.0414 <s> WHAT 0.0000
-2.0414 <s> X 0.0000
-2.0414 <s> Y 0.0000
-2.0414 <s> Z 0.0000
-0.3010 A </s> -0.3010
-0.3010 B </s> -0.3010
-0.3010 BEATS </s> -0.3010
-0.3010 C </s> -0.3010
-0.3010 CAPTURE </s> -0.3010
-0.3010 CRACK </s> -0.3010
-0.3010 D </s> -0.3010
-0.3010 DATE </s> -0.3010
-0.3010 E </s> -0.3010
-0.3010 F </s> -0.3010
-0.3010 FOR </s> -0.3010
-0.3010 FORECAST </s> -0.3010
-0.3010 G </s> -0.3010
-0.3010 H </s> -0.3010
-0.3010 HIT </s> -0.3010
-0.3010 HOW </s> -0.3010
-0.3010 HUMOUR </s> -0.3010
-0.3010 I </s> -0.3010
-0.3010 IRIS </s> -0.3010
-0.3010 IS </s> -0.3010
-0.3010 IT </s> -0.3010
-0.3010 J </s> -0.3010
-0.3010 JOKE </s> -0.3010
-0.3010 K </s> -0.3010
-0.3010 L </s> -0.3010
-0.3010 M </s> -0.3010
-0.3010 ME </s> -0.3010
-0.3010 MUSIC </s> -0.3010
-0.3010 N </s> -0.3010
-0.3010 O </s> -0.3010
-0.3010 P </s> -0.3010
-0.3010 PAUSE </s> -0.3010
-0.3010 PLAY </s> -0.3010
-0.3010 Q </s> -0.3010
-0.3010 R </s> -0.3010
-0.3010 READ </s> -0.3010
-0.3010 REPEAT </s> -0.3010
-0.3010 S </s> -0.3010
-0.3010 SAVE </s> -0.3010
-0.3010 SONG </s> -0.3010
-0.3010 T </s> -0.3010
-0.3010 THE </s> -0.3010
-0.3010 THIS </s> -0.3010
-0.3010 TIME </s> -0.3010
-0.3010 TODAY </s> -0.3010
-0.3010 U </s> -0.3010
-0.3010 V </s> -0.3010
-0.3010 W </s> -0.3010
-0.3010 WEATHER </s> -0.3010
-0.3010 WHAT </s> -0.3010
-0.3010 X </s> -0.3010
-0.3010 Y </s> -0.3010
-0.3010 Z </s> -0.3010

\3-grams:
-0.3010 <s> A </s>
-0.3010 <s> B </s>
-0.3010 <s> BEATS </s>
-0.3010 <s> C </s>
-0.3010 <s> CAPTURE </s>
-0.3010 <s> CRACK </s>
-0.3010 <s> D </s>
-0.3010 <s> DATE </s>
-0.3010 <s> E </s>
-0.3010 <s> F </s>
-0.3010 <s> FOR </s>
-0.3010 <s> FORECAST </s>
-0.3010 <s> G </s>
-0.3010 <s> H </s>
-0.3010 <s> HIT </s>
-0.3010 <s> HOW </s>
-0.3010 <s> HUMOUR </s>
-0.3010 <s> I </s>
-0.3010 <s> IRIS </s>
-0.3010 <s> IS </s>
-0.3010 <s> IT </s>
-0.3010 <s> J </s>
-0.3010 <s> JOKE </s>
-0.3010 <s> K </s>
-0.3010 <s> L </s>
-0.3010 <s> M </s>
-0.3010 <s> ME </s>
-0.3010 <s> MUSIC </s>
-0.3010 <s> N </s>
-0.3010 <s> O </s>
-0.3010 <s> P </s>
-0.3010 <s> PAUSE </s>
-0.3010 <s> PLAY </s>
-0.3010 <s> Q </s>
-0.3010 <s> R </s>
-0.3010 <s> READ </s>
-0.3010 <s> REPEAT </s>
-0.3010 <s> S </s>
-0.3010 <s> SAVE </s>
-0.3010 <s> SONG </s>
-0.3010 <s> T </s>
-0.3010 <s> THE </s>
-0.3010 <s> THIS </s>
-0.3010 <s> TIME </s>
-0.3010 <s> TODAY </s>
-0.3010 <s> U </s>
-0.3010 <s> V </s>
-0.3010 <s> W </s>
-0.3010 <s> WEATHER </s>
-0.3010 <s> WHAT </s>
-0.3010 <s> X </s>
-0.3010 <s> Y </s>
-0.3010 <s> Z </s>

\end\
